-9.278122335672378540e-02,-6.536706089973449707e-01,-1.449707616120576859e-02,-3.248819708824157715e-01,8.448228985071182251e-02,-6.174936294555664062e-01,2.755418419837951660e-01,1.071335151791572571e-01,-2.493420541286468506e-01,-5.907539129257202148e-01
1.494760632514953613e+00,2.721942663192749023e-01,2.793174743652343750e+00,-4.670268893241882324e-01,1.298872947692871094e+00,-4.968374967575073242e-02,1.742487788200378418e+00,1.648571372032165527e+00,-2.486253082752227783e-01,-6.459330916404724121e-01
1.215745229274034500e-03,-1.577769517898559570e-01,-4.996037483215332031e-01,-3.842675685882568359e-02,-1.409030914306640625e+00,3.857272863388061523e-01,2.278076171875000000e+00,-1.385645866394042969e+00,-5.825071930885314941e-01,-3.846939504146575928e-01
3.814835548400878906e+00
0.000000000000000000e+00
1.417419552803039551e+00
0.000000000000000000e+00
3.781919240951538086e+00
0.000000000000000000e+00
2.905912399291992188e+00
3.206186771392822266e+00
0.000000000000000000e+00
0.000000000000000000e+00
1.253909945487976074e+00,1.089750647544860840e+00,-3.772691786289215088e-01,8.447043895721435547e-01,4.524700641632080078e-01,-4.240985512733459473e-01,-4.605048000812530518e-01,1.060273766517639160e+00,-4.248200058937072754e-01,-3.784180283546447754e-01
-6.524661183357238770e-02,2.789990901947021484e-01,-2.479060292243957520e-01,-5.339052677154541016e-01,3.699601888656616211e-01,-7.665216922760009766e-03,5.250430107116699219e-01,4.957432746887207031e-01,4.054418802261352539e-01,-4.696000814437866211e-01
9.471834897994995117e-01,9.392998814582824707e-01,2.133100926876068115e-01,5.640076994895935059e-01,-3.701157867908477783e-01,-7.652208209037780762e-02,9.467650204896926880e-02,1.040359973907470703e+00,-9.700202941894531250e-02,1.275197267532348633e+00
4.428124427795410156e-01,3.374125957489013672e-01,-2.108461558818817139e-01,-4.080903530120849609e-01,3.060742616653442383e-01,2.431730031967163086e-01,3.584810495376586914e-01,-9.116870164871215820e-02,4.086973071098327637e-01,3.667598962783813477e-01
4.485373497009277344e-01,4.486734569072723389e-01,-3.749783039093017578e-01,6.351469755172729492e-01,1.220173120498657227e+00,-7.515981793403625488e-01,-2.204986065626144409e-01,1.372323632240295410e-01,5.042244195938110352e-01,8.603554964065551758e-01
-2.157780528068542480e-01,4.698958396911621094e-01,2.583566904067993164e-01,-3.513700366020202637e-01,6.271243095397949219e-02,6.769853830337524414e-02,-2.457479536533355713e-01,3.110924959182739258e-01,1.922301650047302246e-01,-2.289745509624481201e-01
6.792405247688293457e-02,7.249744534492492676e-01,-1.687440574169158936e-01,2.946714758872985840e-01,-4.364064037799835205e-01,4.710557460784912109e-01,-2.571728229522705078e-01,4.870672523975372314e-01,-2.894288599491119385e-01,-6.259080171585083008e-01
5.928902029991149902e-01,5.349314808845520020e-01,4.309799671173095703e-01,2.922755479812622070e-01,5.666531324386596680e-01,-3.724363744258880615e-01,5.000504851341247559e-01,3.847768604755401611e-01,-2.129777371883392334e-01,9.603195190429687500e-01
5.269613265991210938e-01,3.233643174171447754e-01,-4.541855454444885254e-01,4.827497005462646484e-01,4.693652391433715820e-01,-4.917646348476409912e-01,5.015423297882080078e-01,3.971922993659973145e-01,4.285173416137695312e-01,9.757608175277709961e-02
-1.820950210094451904e-01,2.181223630905151367e-01,-4.660358130931854248e-01,2.675389051437377930e-01,2.586533427238464355e-01,5.416001081466674805e-01,-1.820587217807769775e-01,-1.473623514175415039e-02,-5.285634994506835938e-01,-1.104343533515930176e-01
3.583759546279907227e+00
3.472355127334594727e+00
-8.392434567213058472e-02
3.464892864227294922e+00
4.214101314544677734e+00
-1.558168053627014160e+00
-7.581299636512994766e-03
3.165925264358520508e+00
0.000000000000000000e+00
-5.335247516632080078e+00
9.032405614852905273e-01,5.079524517059326172e-01,-4.231741279363632202e-02,1.216728389263153076e-01,-5.857003927230834961e-01,-1.462954580783843994e-01,2.152955532073974609e-01,1.224183216691017151e-01,7.165057063102722168e-01,9.871997833251953125e-01
1.083763360977172852e+00,1.237942099571228027e+00,4.405243322253227234e-02,-8.932608366012573242e-02,-1.758520305156707764e-02,-3.416209220886230469e-01,-3.159181177616119385e-01,-1.627179048955440521e-02,1.047294735908508301e+00,9.779938459396362305e-01
5.625127628445625305e-02,1.294458359479904175e-01,1.151563599705696106e-01,4.123174548149108887e-01,-3.106445670127868652e-01,-3.310095071792602539e-01,3.661394119262695312e-01,-9.709792584180831909e-02,-1.600281447172164917e-01,1.234000697731971741e-01
1.178932905197143555e+00,3.939385712146759033e-01,-2.674580216407775879e-01,2.691130638122558594e-01,-3.497592806816101074e-01,4.386609792709350586e-02,-1.076983404345810413e-03,5.067807063460350037e-02,1.323745965957641602e+00,6.335487365722656250e-01
5.612709045410156250e+00,4.724510192871093750e+00,-2.401767224073410034e-01,-4.075660705566406250e+00,4.476130604743957520e-01,1.735498905181884766e-01,-1.039919734001159668e+00,-3.379166722297668457e-01,5.329432010650634766e+00,5.179316043853759766e+00
-2.259061574935913086e+00,-2.733733654022216797e+00,4.186509847640991211e-01,1.388294339179992676e+00,2.922860682010650635e-01,-9.492307901382446289e-02,-6.187018752098083496e-01,-1.790484040975570679e-01,-3.151477336883544922e+00,-2.614878654479980469e+00
3.814662992954254150e-01,8.503276109695434570e-02,4.985050261020660400e-01,2.941777408123016357e-01,-1.782751530408859253e-01,-4.258472025394439697e-01,3.386461734771728516e-02,-1.688982844352722168e-01,-8.625897765159606934e-02,2.677962481975555420e-01
8.966306447982788086e-01,1.174197316169738770e+00,-5.193532705307006836e-01,5.030828714370727539e-01,4.225624203681945801e-01,2.926162481307983398e-01,3.782188892364501953e-01,-1.695562303066253662e-01,6.849046349525451660e-01,7.597628235816955566e-01
1.776072382926940918e-01,9.494483470916748047e-03,-2.266955375671386719e-01,-9.377324581146240234e-02,-1.593518257141113281e-02,-4.577851891517639160e-01,4.937553405761718750e-01,2.202561497688293457e-01,5.298538208007812500e-01,-6.963878870010375977e-02
-5.112097740173339844e+00,-5.062610626220703125e+00,3.713332414627075195e-01,3.827645063400268555e+00,8.639822900295257568e-02,2.167789936065673828e-01,2.369550168514251709e-01,-5.942635536193847656e-01,-4.685659408569335938e+00,-5.075155258178710938e+00
3.174040079116821289e+00
3.209991693496704102e+00
-2.273237146437168121e-02
-1.761203408241271973e+00
-1.380488276481628418e-01
0.000000000000000000e+00
-4.253802001476287842e-01
-1.229026094079017639e-01
3.415976047515869141e+00
3.362872600555419922e+00
1.933548569679260254e+00
1.828563570976257324e+00
-6.940270662307739258e-01
-4.021605014801025391e+00
-5.991522073745727539e-01
1.025055646896362305e-01
-1.342512965202331543e+00
-2.906047701835632324e-01
1.575527071952819824e+00
1.469420313835144043e+00
2.869957447052001953e+00
